digraph Tree {
node [shape=box] ;
0 [label="Thal_defect_normal <= -0.111\ngini = 0.497\nsamples = 224\nvalue = [121, 103]\nclass = False"] ;
1 [label="num_vessels_fluro <= -0.184\ngini = 0.35\nsamples = 93\nvalue = [21, 72]\nclass = True"] ;
0 -> 1 [labeldistance=2.5, labelangle=45, headlabel="True"] ;
2 [label="ST_dep_by_exerc <= -0.174\ngini = 0.489\nsamples = 40\nvalue = [17, 23]\nclass = True"] ;
1 -> 2 ;
3 [label="Age <= -1.502\ngini = 0.43\nsamples = 16\nvalue = [11, 5]\nclass = False"] ;
2 -> 3 ;
4 [label="gini = 0.0\nsamples = 2\nvalue = [0, 2]\nclass = True"] ;
3 -> 4 ;
5 [label="Serum_cholest <= 0.066\ngini = 0.337\nsamples = 14\nvalue = [11, 3]\nclass = False"] ;
3 -> 5 ;
6 [label="Age <= 1.274\ngini = 0.165\nsamples = 11\nvalue = [10, 1]\nclass = False"] ;
5 -> 6 ;
7 [label="gini = 0.0\nsamples = 10\nvalue = [10, 0]\nclass = False"] ;
6 -> 7 ;
8 [label="gini = 0.0\nsamples = 1\nvalue = [0, 1]\nclass = True"] ;
6 -> 8 ;
9 [label="ST_dep_by_exerc <= -0.776\ngini = 0.444\nsamples = 3\nvalue = [1, 2]\nclass = True"] ;
5 -> 9 ;
10 [label="gini = 0.0\nsamples = 1\nvalue = [1, 0]\nclass = False"] ;
9 -> 10 ;
11 [label="gini = 0.0\nsamples = 2\nvalue = [0, 2]\nclass = True"] ;
9 -> 11 ;
12 [label="Age <= -0.114\ngini = 0.375\nsamples = 24\nvalue = [6, 18]\nclass = True"] ;
2 -> 12 ;
13 [label="gini = 0.0\nsamples = 13\nvalue = [0, 13]\nclass = True"] ;
12 -> 13 ;
14 [label="ind_exerc_angina <= 0.367\ngini = 0.496\nsamples = 11\nvalue = [6, 5]\nclass = False"] ;
12 -> 14 ;
15 [label="gini = 0.0\nsamples = 5\nvalue = [5, 0]\nclass = False"] ;
14 -> 15 ;
16 [label="resting_BP <= -0.377\ngini = 0.278\nsamples = 6\nvalue = [1, 5]\nclass = True"] ;
14 -> 16 ;
17 [label="gini = 0.0\nsamples = 1\nvalue = [1, 0]\nclass = False"] ;
16 -> 17 ;
18 [label="gini = 0.0\nsamples = 5\nvalue = [0, 5]\nclass = True"] ;
16 -> 18 ;
19 [label="resting_BP <= -1.282\ngini = 0.14\nsamples = 53\nvalue = [4, 49]\nclass = True"] ;
1 -> 19 ;
20 [label="gini = 0.0\nsamples = 1\nvalue = [1, 0]\nclass = False"] ;
19 -> 20 ;
21 [label="Age <= 0.774\ngini = 0.109\nsamples = 52\nvalue = [3, 49]\nclass = True"] ;
19 -> 21 ;
22 [label="gini = 0.0\nsamples = 38\nvalue = [0, 38]\nclass = True"] ;
21 -> 22 ;
23 [label="Serum_cholest <= 0.48\ngini = 0.337\nsamples = 14\nvalue = [3, 11]\nclass = True"] ;
21 -> 23 ;
24 [label="ST_dep_by_exerc <= -0.561\ngini = 0.26\nsamples = 13\nvalue = [2, 11]\nclass = True"] ;
23 -> 24 ;
25 [label="gini = 0.0\nsamples = 1\nvalue = [1, 0]\nclass = False"] ;
24 -> 25 ;
26 [label="num_vessels_fluro <= 1.953\ngini = 0.153\nsamples = 12\nvalue = [1, 11]\nclass = True"] ;
24 -> 26 ;
27 [label="gini = 0.0\nsamples = 9\nvalue = [0, 9]\nclass = True"] ;
26 -> 27 ;
28 [label="Age <= 0.996\ngini = 0.444\nsamples = 3\nvalue = [1, 2]\nclass = True"] ;
26 -> 28 ;
29 [label="gini = 0.0\nsamples = 1\nvalue = [1, 0]\nclass = False"] ;
28 -> 29 ;
30 [label="gini = 0.0\nsamples = 2\nvalue = [0, 2]\nclass = True"] ;
28 -> 30 ;
31 [label="gini = 0.0\nsamples = 1\nvalue = [1, 0]\nclass = False"] ;
23 -> 31 ;
32 [label="Angina_type_asymptomatic <= 0.044\ngini = 0.361\nsamples = 131\nvalue = [100, 31]\nclass = False"] ;
0 -> 32 [labeldistance=2.5, labelangle=-45, headlabel="False"] ;
33 [label="Age <= 0.219\ngini = 0.203\nsamples = 87\nvalue = [77, 10]\nclass = False"] ;
32 -> 33 ;
34 [label="ST_dep_by_exerc <= 2.15\ngini = 0.034\nsamples = 57\nvalue = [56, 1]\nclass = False"] ;
33 -> 34 ;
35 [label="gini = 0.0\nsamples = 56\nvalue = [56, 0]\nclass = False"] ;
34 -> 35 ;
36 [label="gini = 0.0\nsamples = 1\nvalue = [0, 1]\nclass = True"] ;
34 -> 36 ;
37 [label="Sex_male <= -0.375\ngini = 0.42\nsamples = 30\nvalue = [21, 9]\nclass = False"] ;
33 -> 37 ;
38 [label="Age <= 0.33\ngini = 0.117\nsamples = 16\nvalue = [15, 1]\nclass = False"] ;
37 -> 38 ;
39 [label="gini = 0.0\nsamples = 1\nvalue = [0, 1]\nclass = True"] ;
38 -> 39 ;
40 [label="gini = 0.0\nsamples = 15\nvalue = [15, 0]\nclass = False"] ;
38 -> 40 ;
41 [label="ind_exerc_angina <= 0.367\ngini = 0.49\nsamples = 14\nvalue = [6, 8]\nclass = True"] ;
37 -> 41 ;
42 [label="blood_sugar_exc120 <= 0.996\ngini = 0.397\nsamples = 11\nvalue = [3, 8]\nclass = True"] ;
41 -> 42 ;
43 [label="gini = 0.0\nsamples = 7\nvalue = [0, 7]\nclass = True"] ;
42 -> 43 ;
44 [label="Serum_cholest <= 0.21\ngini = 0.375\nsamples = 4\nvalue = [3, 1]\nclass = False"] ;
42 -> 44 ;
45 [label="gini = 0.0\nsamples = 3\nvalue = [3, 0]\nclass = False"] ;
44 -> 45 ;
46 [label="gini = 0.0\nsamples = 1\nvalue = [0, 1]\nclass = True"] ;
44 -> 46 ;
47 [label="gini = 0.0\nsamples = 3\nvalue = [3, 0]\nclass = False"] ;
41 -> 47 ;
48 [label="num_vessels_fluro <= -0.184\ngini = 0.499\nsamples = 44\nvalue = [23, 21]\nclass = False"] ;
32 -> 48 ;
49 [label="resting_BP <= 0.754\ngini = 0.375\nsamples = 28\nvalue = [21, 7]\nclass = False"] ;
48 -> 49 ;
50 [label="blood_sugar_exc120 <= 0.996\ngini = 0.236\nsamples = 22\nvalue = [19, 3]\nclass = False"] ;
49 -> 50 ;
51 [label="Max_heart_rate <= -2.313\ngini = 0.172\nsamples = 21\nvalue = [19, 2]\nclass = False"] ;
50 -> 51 ;
52 [label="gini = 0.0\nsamples = 1\nvalue = [0, 1]\nclass = True"] ;
51 -> 52 ;
53 [label="Serum_cholest <= 1.339\ngini = 0.095\nsamples = 20\nvalue = [19, 1]\nclass = False"] ;
51 -> 53 ;
54 [label="gini = 0.0\nsamples = 18\nvalue = [18, 0]\nclass = False"] ;
53 -> 54 ;
55 [label="ST_dep_by_exerc <= -0.389\ngini = 0.5\nsamples = 2\nvalue = [1, 1]\nclass = False"] ;
53 -> 55 ;
56 [label="gini = 0.0\nsamples = 1\nvalue = [0, 1]\nclass = True"] ;
55 -> 56 ;
57 [label="gini = 0.0\nsamples = 1\nvalue = [1, 0]\nclass = False"] ;
55 -> 57 ;
58 [label="gini = 0.0\nsamples = 1\nvalue = [0, 1]\nclass = True"] ;
50 -> 58 ;
59 [label="ind_for_slope_exerc_flat <= 0.077\ngini = 0.444\nsamples = 6\nvalue = [2, 4]\nclass = True"] ;
49 -> 59 ;
60 [label="Age <= -0.336\ngini = 0.444\nsamples = 3\nvalue = [2, 1]\nclass = False"] ;
59 -> 60 ;
61 [label="gini = 0.0\nsamples = 1\nvalue = [1, 0]\nclass = False"] ;
60 -> 61 ;
62 [label="Serum_cholest <= 1.31\ngini = 0.5\nsamples = 2\nvalue = [1, 1]\nclass = False"] ;
60 -> 62 ;
63 [label="gini = 0.0\nsamples = 1\nvalue = [0, 1]\nclass = True"] ;
62 -> 63 ;
64 [label="gini = 0.0\nsamples = 1\nvalue = [1, 0]\nclass = False"] ;
62 -> 64 ;
65 [label="gini = 0.0\nsamples = 3\nvalue = [0, 3]\nclass = True"] ;
59 -> 65 ;
66 [label="resting_BP <= -1.396\ngini = 0.219\nsamples = 16\nvalue = [2, 14]\nclass = True"] ;
48 -> 66 ;
67 [label="gini = 0.0\nsamples = 1\nvalue = [1, 0]\nclass = False"] ;
66 -> 67 ;
68 [label="Sex_female <= 0.375\ngini = 0.124\nsamples = 15\nvalue = [1, 14]\nclass = True"] ;
66 -> 68 ;
69 [label="gini = 0.0\nsamples = 12\nvalue = [0, 12]\nclass = True"] ;
68 -> 69 ;
70 [label="Age <= 0.996\ngini = 0.444\nsamples = 3\nvalue = [1, 2]\nclass = True"] ;
68 -> 70 ;
71 [label="gini = 0.0\nsamples = 2\nvalue = [0, 2]\nclass = True"] ;
70 -> 71 ;
72 [label="gini = 0.0\nsamples = 1\nvalue = [1, 0]\nclass = False"] ;
70 -> 72 ;
}